FANN_FLO_2.1
num_layers=3
learning_rate=0.700000
connection_rate=1.000000
network_type=0
learning_momentum=0.000000
training_algorithm=2
train_error_function=1
train_stop_function=0
cascade_output_change_fraction=0.010000
quickprop_decay=-0.000100
quickprop_mu=1.750000
rprop_increase_factor=1.200000
rprop_decrease_factor=0.500000
rprop_delta_min=0.000000
rprop_delta_max=50.000000
rprop_delta_zero=0.100000
cascade_output_stagnation_epochs=12
cascade_candidate_change_fraction=0.010000
cascade_candidate_stagnation_epochs=12
cascade_max_out_epochs=150
cascade_max_cand_epochs=150
cascade_num_candidate_groups=2
bit_fail_limit=3.49999999999999977796e-01
cascade_candidate_limit=1.00000000000000000000e+03
cascade_weight_multiplier=4.00000000000000022204e-01
cascade_activation_functions_count=10
cascade_activation_functions=3 5 7 8 10 11 14 15 16 17 
cascade_activation_steepnesses_count=4
cascade_activation_steepnesses=2.50000000000000000000e-01 5.00000000000000000000e-01 7.50000000000000000000e-01 1.00000000000000000000e+00 
layer_sizes=3 33 2 
scale_included=0
neurons (num_inputs, activation_function, activation_steepness)=(0, 0, 0.00000000000000000000e+00) (0, 0, 0.00000000000000000000e+00) (0, 0, 0.00000000000000000000e+00) (3, 0, 5.00000000000000000000e-01) (3, 0, 5.00000000000000000000e-01) (3, 0, 5.00000000000000000000e-01) (3, 0, 5.00000000000000000000e-01) (3, 0, 5.00000000000000000000e-01) (3, 0, 5.00000000000000000000e-01) (3, 0, 5.00000000000000000000e-01) (3, 0, 5.00000000000000000000e-01) (3, 0, 5.00000000000000000000e-01) (3, 0, 5.00000000000000000000e-01) (3, 0, 5.00000000000000000000e-01) (3, 0, 5.00000000000000000000e-01) (3, 0, 5.00000000000000000000e-01) (3, 0, 5.00000000000000000000e-01) (3, 0, 5.00000000000000000000e-01) (3, 0, 5.00000000000000000000e-01) (3, 0, 5.00000000000000000000e-01) (3, 0, 5.00000000000000000000e-01) (3, 0, 5.00000000000000000000e-01) (3, 0, 5.00000000000000000000e-01) (3, 0, 5.00000000000000000000e-01) (3, 0, 5.00000000000000000000e-01) (3, 0, 5.00000000000000000000e-01) (3, 0, 5.00000000000000000000e-01) (3, 0, 5.00000000000000000000e-01) (3, 0, 5.00000000000000000000e-01) (3, 0, 5.00000000000000000000e-01) (3, 0, 5.00000000000000000000e-01) (3, 0, 5.00000000000000000000e-01) (3, 0, 5.00000000000000000000e-01) (3, 0, 5.00000000000000000000e-01) (3, 0, 5.00000000000000000000e-01) (0, 0, 0.00000000000000000000e+00) (33, 0, 5.00000000000000000000e-01) (0, 0, 0.00000000000000000000e+00) 
connections (connected_to_neuron, weight)=(0, -3.81127185961093462030e-01) (1, -3.31815637273293662091e-01) (2, 1.61774230868123231053e-01) (0, -3.51670348698778389984e-01) (1, -3.91773267981475936672e-01) (2, 1.33431625529242731121e-01) (0, 2.06211723407600550084e-01) (1, 6.78613110295565175045e-02) (2, -2.41821108682397714618e-02) (0, -3.31988215393971775047e-01) (1, -3.18097641019207233448e-01) (2, 2.02252177220008183545e-01) (0, 2.63102507354425418917e-01) (1, 1.59472114092932243379e-01) (2, -1.47550547191873798747e-02) (0, 1.16417594290871923013e-01) (1, 1.14394560338850301284e-01) (2, -1.01243035593259911309e+00) (0, 1.06876630831974656077e-01) (1, 1.48697028939871855879e-01) (2, -2.28014937692732691521e-02) (0, 1.87840611191784107037e-01) (1, 4.70193449299151702836e-03) (2, -9.68658378209626858002e-01) (0, 5.50337536795356893626e-02) (1, 1.06458550735319984470e-01) (2, -8.93742405393189609519e-01) (0, 1.26272083858797706801e-01) (1, 1.87598923314091781123e-01) (2, -1.88997374356873575063e-02) (0, 8.62124035062432181320e-01) (1, 9.55668155244173256335e-01) (2, 5.46614674406525113959e-01) (0, 4.57243585355553205929e-01) (1, 3.91103317094389724140e-01) (2, 1.69096704641569395289e-01) (0, -2.95143440881848129198e-01) (1, -4.14078983211668472109e-01) (2, 1.35354820085526600382e-01) (0, 8.66656754250860472677e-02) (1, 1.51167953961355239212e-01) (2, -6.38545262754817381096e-04) (0, 4.53560000465283164051e-01) (1, 3.93160687575394574012e-01) (2, 3.44742036875852586597e-01) (0, 2.75135409681350584510e-01) (1, 2.78735184456678386500e-01) (2, 6.89575073979803582214e-02) (0, 2.12322827317927953494e-01) (1, 2.88721603133626041060e-02) (2, -3.71574957960073504193e-01) (0, -3.37230416878595395946e-01) (1, -3.88784671396998016135e-01) (2, 2.10574211654565718321e-01) (0, 2.59168240132523541863e-01) (1, 1.85690221733200266918e-01) (2, -2.56346767223198171437e-02) (0, 1.15043605328278120137e-01) (1, 1.55222653690072015520e-01) (2, -2.27265244819053774394e-01) (0, 2.99052873645834604854e-01) (1, 1.20569941532655128258e-01) (2, 8.80038399032710000336e-02) (0, 9.71357459919443888552e-01) (1, 9.16549158212439873950e-01) (2, 3.85352946019024811264e-01) (0, 2.86287820168472040283e-01) (1, 1.68511214859696834001e-01) (2, -5.44707491089135298346e-02) (0, -4.24176001379855616147e-01) (1, -3.16217117335621633600e-01) (2, 2.35094022286732179383e-01) (0, -3.07684049433806394713e-01) (1, -4.04566937090428124790e-01) (2, 2.93363131428098611320e-01) (0, 2.03049201411065860512e-01) (1, 2.78942892211315796036e-01) (2, 8.47183850819011735611e-02) (0, 8.38833991111754606607e-01) (1, 9.55779869530704928593e-01) (2, 5.55466218631764152569e-01) (0, 1.47430627961981169927e-01) (1, 1.24854929834422895274e-01) (2, -9.98631879153951823591e-02) (0, 2.82646974323713773281e-01) (1, 1.22913383113538415836e-01) (2, 3.17354888435906271060e-02) (0, -3.96317981530823149061e-01) (1, -2.88458530887807707010e-01) (2, 1.80184804855943542234e-01) (0, 3.57545960281798025360e-01) (1, 4.58968772511209988085e-01) (2, 2.53374831678977174843e-01) (0, 2.81880264027191573817e-01) (1, 1.97919603975900415538e-01) (2, -4.56130399938000224980e-02) (3, -3.17498097013314273251e-01) (4, -2.30608554848816343918e-01) (5, 1.68803348507648831589e-01) (6, -2.95638369073951079447e-01) (7, 1.20364694356309087642e-01) (8, 1.21277587818597409886e+00) (9, 1.98760397433188351624e-01) (10, 2.86179181252564696081e-01) (11, 4.09949734122945996795e-01) (12, 1.75965640427694192116e-01) (13, 7.97859802581556309953e-01) (14, 2.55837696131424485735e-01) (15, -2.38448130282392062318e-01) (16, 2.16062695305527519007e-01) (17, 2.36080548796801847899e-01) (18, 3.67673834861714066147e-01) (19, 1.63503191981948375888e-01) (20, -2.80896177833633187149e-01) (21, 1.16876802879888164188e-01) (22, 5.50563753754019016839e-02) (23, 9.40657282156506097115e-02) (24, 8.81231582960252501913e-01) (25, 8.64893429180050715699e-02) (26, -3.38298525943857952836e-01) (27, -2.70706095154091941346e-01) (28, 8.93897939616311448807e-02) (29, 8.14101553130958444093e-01) (30, 2.51201089709337244127e-01) (31, 6.93602508817550561515e-02) (32, -2.86557526987563704335e-01) (33, 2.37456745745631081501e-01) (34, 8.26124525250028496348e-02) (35, 4.83670024681197574523e-01) 
